{
  "type": "NeuralNetwork",
  "sizes": [
    6,
    6,
    4,
    2
  ],
  "layers": [
    {
      "weights": [],
      "biases": []
    },
    {
      "weights": [
        [
          -2.3407561779022217,
          6.585579872131348,
          -12.531993865966797,
          5.698252201080322,
          -0.5375148057937622,
          -4.421212673187256
        ],
        [
          -2.7844467163085938,
          4.207675933837891,
          -6.605557441711426,
          -1.3982831239700317,
          1.400460958480835,
          -2.7772741317749023
        ],
        [
          -6.814217567443848,
          -1.115200400352478,
          -6.8365702629089355,
          -7.961196422576904,
          1.486152172088623,
          8.178289413452148
        ],
        [
          -1.72517991065979,
          0.7569034099578857,
          -4.08267879486084,
          -5.326104640960693,
          1.1058146953582764,
          -0.39403092861175537
        ],
        [
          -2.4417874813079834,
          -0.39581888914108276,
          -3.0453758239746094,
          -2.7224268913269043,
          -2.0040485858917236,
          -0.1453353315591812
        ],
        [
          6.227388381958008,
          1.4550485610961914,
          -8.559617042541504,
          -11.055350303649902,
          -11.045559883117676,
          10.244977951049805
        ]
      ],
      "biases": [
        1.0641571283340454,
        1.6631813049316406,
        -1.4446064233779907,
        1.45535147190094,
        -0.790715754032135,
        3.4568252563476562
      ]
    },
    {
      "weights": [
        [
          3.5231504440307617,
          3.238091468811035,
          -0.6714166402816772,
          -0.2569495439529419,
          -1.4636131525039673,
          -13.171791076660156
        ],
        [
          -0.4356382489204407,
          -0.1784798800945282,
          -3.1569392681121826,
          -0.5618259310722351,
          -0.7229320406913757,
          1.242923378944397
        ],
        [
          -9.412389755249023,
          -4.933383464813232,
          -8.622634887695312,
          -4.671165943145752,
          -0.3267691731452942,
          5.774184226989746
        ],
        [
          -2.8183228969573975,
          -2.7689218521118164,
          -1.4125587940216064,
          -1.4326826333999634,
          -1.2004270553588867,
          -1.5601251125335693
        ]
      ],
      "biases": [
        3.014632225036621,
        -0.22397135198116302,
        0.08644652366638184,
        0.6427192687988281
      ]
    },
    {
      "weights": [
        [
          1.6552037000656128,
          0.4002907872200012,
          2.1620852947235107,
          -1.8423447608947754
        ],
        [
          6.078672885894775,
          1.0190348625183105,
          7.430289268493652,
          -1.4893394708633423
        ]
      ],
      "biases": [
        -1.1622370481491089,
        -4.840005397796631
      ]
    }
  ],
  "inputLookup": {
    "homeStrength": 0,
    "awayStrength": 1,
    "homeRest": 2,
    "awayRest": 3,
    "homeForm": 4,
    "awayForm": 5
  },
  "inputLookupLength": 6,
  "outputLookup": {
    "expectedMargin": 0,
    "homeWin": 1
  },
  "outputLookupLength": 2,
  "options": {
    "inputSize": 0,
    "outputSize": 0,
    "binaryThresh": 0.5,
    "hiddenLayers": [
      6,
      4
    ]
  },
  "trainOpts": {
    "activation": "sigmoid",
    "iterations": 10000,
    "errorThresh": 0.005,
    "log": true,
    "logPeriod": 1000,
    "leakyReluAlpha": 0.01,
    "learningRate": 0.1,
    "momentum": 0.1,
    "callbackPeriod": 10,
    "timeout": "Infinity",
    "beta1": 0.9,
    "beta2": 0.999,
    "epsilon": 1e-8
  }
}