{
  "type": "NeuralNetwork",
  "sizes": [
    20,
    10,
    8,
    4,
    2
  ],
  "layers": [
    {
      "weights": [],
      "biases": []
    },
    {
      "weights": [
        [
          0.08439851552248001,
          0.006793740671128035,
          0.08775007724761963,
          -0.13656850159168243,
          0.1646898090839386,
          -0.02224033884704113,
          0.12542933225631714,
          -0.129214808344841,
          -0.0697367936372757,
          -0.09397329390048981,
          -0.05819833651185036,
          0.04174747318029404,
          -0.03240283578634262,
          -0.16717995703220367,
          -0.19013768434524536,
          -0.06014076620340347,
          0.17871026694774628,
          -0.10926781594753265,
          -0.12954144179821014,
          0.1906508356332779
        ],
        [
          -0.14162053167819977,
          0.1014694944024086,
          0.09159456193447113,
          -0.1470796763896942,
          -0.018676554784178734,
          0.17345760762691498,
          -0.20556817948818207,
          -0.14862923324108124,
          -0.08838023245334625,
          0.058566439896821976,
          -0.014359823428094387,
          -0.047427933663129807,
          -0.14715343713760376,
          0.14444288611412048,
          -0.1633976548910141,
          0.13016167283058167,
          0.02941453456878662,
          0.07363121956586838,
          -0.11727339029312134,
          0.03608757257461548
        ],
        [
          0.06625490635633469,
          0.048874709755182266,
          -0.1129995808005333,
          0.04583294317126274,
          -0.15725313127040863,
          -0.12055455148220062,
          0.02959996461868286,
          0.045000456273555756,
          -0.14892910420894623,
          0.23261238634586334,
          0.07698775827884674,
          0.07866737991571426,
          0.2444942593574524,
          -0.1567894071340561,
          0.004103165119886398,
          -0.20089399814605713,
          0.19569090008735657,
          0.13674916326999664,
          0.046649038791656494,
          0.09279759228229523
        ],
        [
          2.0169551372528076,
          3.385725975036621,
          2.037015199661255,
          -9.243621826171875,
          3.052109718322754,
          4.843777179718018,
          1.944382667541504,
          -3.460123300552368,
          -8.094773292541504,
          -1.1214399337768555,
          -0.08903118222951889,
          10.484390258789062,
          2.881546974182129,
          0.8050200939178467,
          -5.356253147125244,
          -5.9040727615356445,
          1.6627871990203857,
          -0.12373778223991394,
          3.1383001804351807,
          2.957501173019409
        ],
        [
          8.480704307556152,
          -7.062926292419434,
          5.373406887054443,
          -3.2056024074554443,
          2.0114245414733887,
          -4.699484825134277,
          -0.8814573287963867,
          -7.444699287414551,
          -1.8053984642028809,
          -0.2913472056388855,
          0.12545935809612274,
          -1.9984076023101807,
          6.269690990447998,
          1.1876592636108398,
          4.334515571594238,
          2.0408105850219727,
          -3.46940541267395,
          -0.04209823161363602,
          5.789761543273926,
          0.6758639216423035
        ],
        [
          -8.419459342956543,
          6.0628981590271,
          -0.7739895582199097,
          -2.5624303817749023,
          -9.289472579956055,
          8.631293296813965,
          -3.9793617725372314,
          1.6256217956542969,
          9.034614562988281,
          2.783949136734009,
          0.13378766179084778,
          -2.0007524490356445,
          -3.620802164077759,
          2.981626510620117,
          -0.5524411797523499,
          -4.183861255645752,
          5.501404285430908,
          0.2877950072288513,
          1.920917272567749,
          -8.08165454864502
        ],
        [
          -0.20100343227386475,
          -0.15745016932487488,
          0.12956301867961884,
          -0.1414175182580948,
          -0.07194854319095612,
          -0.13710081577301025,
          -0.09732494503259659,
          0.0604579783976078,
          0.014509372413158417,
          -0.09124645590782166,
          -0.12106570601463318,
          -0.10290417820215225,
          0.15929734706878662,
          0.03707674518227577,
          0.13783575594425201,
          0.13122986257076263,
          -0.04350731149315834,
          -0.16347920894622803,
          0.04671905189752579,
          -0.16886699199676514
        ],
        [
          -1.3047658205032349,
          -6.418855667114258,
          3.820408344268799,
          0.513700008392334,
          -5.118906497955322,
          6.2775092124938965,
          -0.15215034782886505,
          -0.6899613738059998,
          -1.151659607887268,
          -0.19456660747528076,
          0.05612289160490036,
          0.24850252270698547,
          -0.30595624446868896,
          -3.6683177947998047,
          1.1765028238296509,
          0.19851639866828918,
          -2.033982992172241,
          -0.2751784026622772,
          0.8837133646011353,
          1.306098222732544
        ],
        [
          -0.0494561642408371,
          0.07717208564281464,
          0.019971204921603203,
          -0.16510044038295746,
          -0.19084402918815613,
          -0.03372148051857948,
          -0.0571058914065361,
          -0.014469773508608341,
          0.002462291158735752,
          -0.0247421283274889,
          0.08999979496002197,
          0.04814872145652771,
          0.1860397756099701,
          0.11681278049945831,
          -0.1295468658208847,
          -0.04497263953089714,
          0.09964416921138763,
          0.01343489345163107,
          -0.1514391303062439,
          -0.15131933987140656
        ],
        [
          4.965620040893555,
          5.085117816925049,
          1.3338428735733032,
          -3.4038307666778564,
          1.7173022031784058,
          6.493940830230713,
          -3.5928921699523926,
          -3.6150100231170654,
          -0.9845516681671143,
          -2.822373151779175,
          -0.19764766097068787,
          1.6449038982391357,
          -2.035353660583496,
          5.719559669494629,
          -4.190970420837402,
          -2.347033739089966,
          4.2728142738342285,
          -0.09459494054317474,
          -1.0992469787597656,
          0.6581021547317505
        ]
      ],
      "biases": [
        -0.062463052570819855,
        -0.16901013255119324,
        -0.20128078758716583,
        -0.01807810738682747,
        0.3048429787158966,
        1.6476001739501953,
        -0.10303442925214767,
        -0.7965220808982849,
        0.029024673625826836,
        -1.1105144023895264
      ]
    },
    {
      "weights": [
        [
          0.051568787544965744,
          0.11888447403907776,
          0.0762009248137474,
          -1.042995810508728,
          -1.8572160005569458,
          -1.5086181163787842,
          0.14851781725883484,
          1.1503788232803345,
          0.06009131669998169,
          0.20131729543209076
        ],
        [
          -0.08205703645944595,
          0.19941473007202148,
          -0.15961000323295593,
          2.49665904045105,
          -2.2043397426605225,
          -2.947601795196533,
          0.19131949543952942,
          0.4170449674129486,
          0.08650258928537369,
          -3.4917328357696533
        ],
        [
          -0.17921262979507446,
          -0.07445750385522842,
          -0.15196840465068817,
          -1.2269551753997803,
          -2.3975322246551514,
          -0.5553352236747742,
          -0.002810861449688673,
          2.2559549808502197,
          -0.1694841980934143,
          -0.797412097454071
        ],
        [
          0.194486603140831,
          0.19579598307609558,
          -0.03534086421132088,
          -0.41256532073020935,
          -4.311431884765625,
          2.1360738277435303,
          -0.12164933979511261,
          0.8669748306274414,
          0.06356741487979889,
          -2.5419771671295166
        ],
        [
          0.19011004269123077,
          0.1173669695854187,
          -0.06532228738069534,
          -1.3045148849487305,
          -2.435534715652466,
          -0.32520627975463867,
          -0.1726452261209488,
          -1.2703289985656738,
          0.16611112654209137,
          0.8577916622161865
        ],
        [
          -0.17371916770935059,
          -0.07778408378362656,
          -0.16642659902572632,
          -2.544752836227417,
          -5.368831634521484,
          -3.8353562355041504,
          -0.004450169391930103,
          -3.01531720161438,
          -0.2033754140138626,
          -0.45683035254478455
        ],
        [
          -0.0668245330452919,
          -0.1276719570159912,
          -0.04278939589858055,
          5.069756507873535,
          0.026645829901099205,
          -3.562330484390259,
          0.19833163917064667,
          -0.5348504781723022,
          0.18423563241958618,
          -2.580044984817505
        ],
        [
          -0.005864197853952646,
          -0.17339983582496643,
          0.2817772328853607,
          -3.655630588531494,
          2.1533572673797607,
          -2.803612470626831,
          -0.10673534125089645,
          0.7081841826438904,
          0.16297943890094757,
          3.084480047225952
        ]
      ],
      "biases": [
        -1.0399560928344727,
        -3.206549644470215,
        -1.8061484098434448,
        -4.3781232833862305,
        -0.360200971364975,
        0.8502271771430969,
        3.7159347534179688,
        4.644007682800293
      ]
    },
    {
      "weights": [
        [
          -1.3571163415908813,
          -0.4163619577884674,
          -2.952451467514038,
          -2.5628154277801514,
          -1.964812994003296,
          -0.768638551235199,
          -0.3226962089538574,
          -0.21916314959526062
        ],
        [
          0.549206554889679,
          1.3176742792129517,
          -0.30786558985710144,
          0.4127771556377411,
          0.7497472763061523,
          5.042293071746826,
          -4.063086986541748,
          -0.9370156526565552
        ],
        [
          1.3897945880889893,
          0.8829705715179443,
          0.6122479438781738,
          -0.09436355531215668,
          0.7640502452850342,
          2.480891466140747,
          -1.1152783632278442,
          -0.2968542277812958
        ],
        [
          1.1244536638259888,
          0.9556053876876831,
          0.6650837063789368,
          0.4213380515575409,
          -0.37282228469848633,
          2.1811716556549072,
          -1.1093871593475342,
          -0.412058562040329
        ]
      ],
      "biases": [
        -0.6981015205383301,
        -3.019317150115967,
        -1.332924723625183,
        -2.1860921382904053
      ]
    },
    {
      "weights": [
        [
          0.32890594005584717,
          -0.8494632840156555,
          -0.8181198835372925,
          0.09908021986484528
        ],
        [
          0.9517713189125061,
          -1.329119324684143,
          -0.24764183163642883,
          -0.8463022112846375
        ]
      ],
      "biases": [
        0.35082343220710754,
        0.22522659599781036
      ]
    }
  ],
  "inputLookup": {
    "homeStrength": 0,
    "awayStrength": 1,
    "homeRest": 2,
    "awayRest": 3,
    "homeForm": 4,
    "awayForm": 5,
    "homeOffRating": 6,
    "homeDefRating": 7,
    "homePace": 8,
    "homeEfg": 9,
    "homeTov": 10,
    "homeOrb": 11,
    "homeDrb": 12,
    "awayOffRating": 13,
    "awayDefRating": 14,
    "awayPace": 15,
    "awayEfg": 16,
    "awayTov": 17,
    "awayOrb": 18,
    "awayDrb": 19
  },
  "inputLookupLength": 20,
  "outputLookup": {
    "expectedMargin": 0,
    "homeWin": 1
  },
  "outputLookupLength": 2,
  "options": {
    "inputSize": 0,
    "outputSize": 0,
    "binaryThresh": 0.5,
    "hiddenLayers": [
      10,
      8,
      4
    ],
    "activation": "leaky-relu"
  },
  "trainOpts": {
    "activation": "leaky-relu",
    "iterations": 8000,
    "errorThresh": 0.005,
    "log": true,
    "logPeriod": 1000,
    "leakyReluAlpha": 0.01,
    "learningRate": 0.05,
    "momentum": 0.1,
    "callbackPeriod": 10,
    "timeout": "Infinity",
    "beta1": 0.9,
    "beta2": 0.999,
    "epsilon": 1e-8
  }
}